34 128
34 -0.037249 -0.202486 0.052534 0.038012 0.030440 -0.145656 0.163825 0.058820 -0.021664 0.010609 -0.137845 0.061867 0.128223 -0.222377 -0.062705 -0.201575 -0.028182 -0.059164 -0.060671 0.042969 0.219921 0.020802 0.251846 0.015857 -0.072186 -0.024247 -0.050952 0.005967 0.020645 0.141544 -0.055869 0.117692 -0.120960 0.030383 -0.172371 -0.146869 0.248383 0.001755 -0.027179 -0.109676 -0.195971 0.027556 0.103666 0.207640 -0.093136 0.097958 -0.053323 -0.058901 -0.070097 0.040287 -0.071337 0.172436 0.100882 0.089962 -0.204970 -0.087310 -0.112152 0.044048 -0.098228 0.061878 0.145753 -0.166038 -0.079697 0.101389 0.061278 -0.101660 -0.033647 -0.008350 0.012946 -0.064274 -0.028807 0.004713 0.037876 -0.081673 0.049956 -0.033796 0.030226 0.011585 0.003482 0.014237 -0.048172 -0.235368 -0.058468 -0.211533 -0.088404 0.245472 -0.083964 0.010368 -0.033827 0.058792 0.134090 0.030462 0.054865 -0.092724 -0.053071 0.135034 -0.100082 -0.029748 0.056622 -0.007491 -0.161657 0.068774 -0.124087 -0.050421 0.018200 -0.005429 0.264421 0.101010 -0.051092 -0.038800 -0.012391 -0.052591 0.002105 0.009285 -0.113696 -0.115831 -0.102022 0.190926 -0.133870 -0.032189 -0.059238 -0.063101 0.044635 -0.156830 -0.004666 0.128857 0.043532 0.154703
1 -0.079181 -0.258659 0.110143 0.011663 0.016651 -0.230642 0.096673 0.143739 0.089875 0.016907 -0.087583 0.090636 0.119478 -0.209571 0.039335 -0.270114 -0.096482 -0.137083 0.046032 -0.082589 0.221039 -0.021655 0.174702 -0.018535 0.010773 0.026748 0.071042 0.057677 0.103272 0.061150 -0.109313 0.082522 -0.129759 0.028738 -0.041498 -0.125948 0.183918 0.047604 0.007558 -0.084174 -0.105954 -0.043348 0.159266 0.212759 -0.126787 0.062113 0.014512 -0.068155 0.006851 0.092511 -0.200239 0.143756 0.084839 0.147072 -0.208498 -0.102375 -0.063819 0.058289 -0.050400 -0.020797 0.184516 -0.147326 -0.054184 0.050075 -0.029119 -0.035647 -0.062799 0.022227 -0.009656 -0.126241 -0.071110 -0.043414 0.020814 -0.085471 0.138688 -0.022138 0.111606 -0.030996 -0.009116 -0.090012 -0.050229 -0.208692 -0.090974 -0.197369 -0.126778 0.059698 0.096791 -0.031388 0.040125 0.096635 0.149175 -0.025480 0.015563 -0.102527 -0.105080 0.053794 -0.048651 -0.209095 0.066782 0.096600 -0.123541 0.048527 -0.098885 -0.007324 -0.058094 -0.013390 0.178794 0.091399 -0.037227 -0.123194 0.006640 0.053384 0.022702 0.087358 -0.182514 -0.060987 -0.037651 0.199162 -0.169372 -0.095209 -0.021710 0.019293 0.103882 -0.162947 -0.153616 0.057133 0.070193 0.170395
33 -0.038138 -0.208618 0.055487 0.038058 0.028158 -0.154789 0.155165 0.069771 -0.008418 0.010382 -0.126761 0.065348 0.126130 -0.223359 -0.047291 -0.205346 -0.040957 -0.064388 -0.056412 0.028748 0.222619 0.017180 0.242745 0.011050 -0.067717 -0.016239 -0.042163 0.011145 0.031753 0.133889 -0.065523 0.114230 -0.123470 0.034556 -0.166121 -0.152086 0.246893 0.006363 -0.029163 -0.108417 -0.188831 0.019348 0.111459 0.210685 -0.099343 0.101495 -0.048918 -0.062460 -0.068758 0.042465 -0.090277 0.175373 0.103555 0.091269 -0.210718 -0.088433 -0.113696 0.047583 -0.093085 0.055822 0.162039 -0.175397 -0.078013 0.101284 0.055503 -0.097030 -0.032823 -0.005479 0.010441 -0.069060 -0.028916 0.000337 0.039715 -0.083502 0.057792 -0.028827 0.040985 0.003810 0.002136 0.003437 -0.042850 -0.234079 -0.064877 -0.210987 -0.093253 0.228877 -0.066838 0.005222 -0.024019 0.061185 0.142685 0.027521 0.050993 -0.095258 -0.054474 0.128572 -0.097117 -0.052788 0.061360 0.003720 -0.158331 0.059326 -0.123943 -0.040958 0.013521 -0.010289 0.256411 0.102120 -0.047985 -0.049954 -0.013234 -0.042445 0.005551 0.010787 -0.117955 -0.107179 -0.097485 0.186938 -0.138476 -0.043553 -0.053265 -0.055362 0.052911 -0.157204 -0.013680 0.118602 0.042213 0.153005
3 -0.063513 -0.234687 0.091474 0.023272 0.019320 -0.198373 0.121837 0.112333 0.043073 0.012785 -0.099907 0.079125 0.117193 -0.216762 0.003789 -0.246715 -0.073175 -0.111482 0.006254 -0.039480 0.215068 -0.005092 0.197450 -0.003205 -0.014850 0.010649 0.026173 0.040961 0.079734 0.093838 -0.092431 0.088463 -0.132176 0.035406 -0.089733 -0.138021 0.214265 0.034858 -0.005212 -0.090574 -0.135290 -0.023709 0.140035 0.217318 -0.118291 0.077793 -0.006936 -0.068847 -0.028379 0.074282 -0.154416 0.150319 0.089537 0.124986 -0.210651 -0.101316 -0.085533 0.055044 -0.070965 0.010100 0.173417 -0.156817 -0.061322 0.075272 0.003332 -0.061499 -0.048833 0.014117 -0.000717 -0.109192 -0.055183 -0.023304 0.023217 -0.083840 0.112656 -0.024437 0.088080 -0.017914 -0.001528 -0.053565 -0.048823 -0.216975 -0.083045 -0.204872 -0.111996 0.130960 0.035834 -0.015255 0.013333 0.079960 0.145090 -0.002973 0.027845 -0.100653 -0.092194 0.085383 -0.071099 -0.144164 0.065485 0.061822 -0.138019 0.051533 -0.113671 -0.022122 -0.030561 -0.008304 0.207310 0.094509 -0.038293 -0.097246 -0.000169 0.018040 0.017545 0.058589 -0.158105 -0.074696 -0.062601 0.198326 -0.152400 -0.074017 -0.036356 -0.015749 0.083743 -0.165252 -0.102002 0.081563 0.061868 0.164935
2 -0.063605 -0.233468 0.098558 0.009300 0.008858 -0.212589 0.091560 0.130031 0.067940 0.015551 -0.080652 0.084837 0.112640 -0.196146 0.038865 -0.250289 -0.096790 -0.119245 0.039262 -0.072979 0.205635 -0.018705 0.162899 -0.017967 0.001710 0.026996 0.062507 0.053080 0.101071 0.060029 -0.094935 0.069065 -0.125685 0.035243 -0.048124 -0.112291 0.176198 0.038702 0.008901 -0.077408 -0.091551 -0.035856 0.142847 0.195983 -0.116994 0.065149 0.006257 -0.064137 0.001309 0.081745 -0.187066 0.126177 0.089574 0.138959 -0.208148 -0.096882 -0.059725 0.058319 -0.056688 -0.012627 0.179181 -0.142390 -0.052008 0.047380 -0.021934 -0.035202 -0.064026 0.015518 -0.009065 -0.125783 -0.072010 -0.043904 0.025767 -0.089035 0.139715 -0.013804 0.111090 -0.032670 -0.003789 -0.085682 -0.052781 -0.217537 -0.097405 -0.203663 -0.120885 0.082466 0.089283 -0.033885 0.042722 0.087354 0.156009 -0.018136 0.013944 -0.113790 -0.110607 0.059963 -0.058181 -0.204525 0.060894 0.095443 -0.118157 0.039896 -0.100765 -0.010103 -0.053532 -0.023373 0.188461 0.094928 -0.036965 -0.121910 -0.001694 0.054067 0.024347 0.081370 -0.187674 -0.060672 -0.044410 0.201867 -0.171036 -0.099070 -0.024879 0.008527 0.106357 -0.173544 -0.137731 0.063372 0.075506 0.166871
32 -0.051780 -0.224094 0.060086 0.033422 0.025179 -0.167477 0.150308 0.079571 0.011611 0.010268 -0.121306 0.072765 0.121969 -0.215721 -0.033775 -0.216098 -0.046482 -0.086751 -0.037475 0.009653 0.220585 0.011897 0.227508 0.005032 -0.052315 -0.015286 -0.023872 0.017277 0.041981 0.119980 -0.070413 0.106942 -0.115655 0.026639 -0.141573 -0.144181 0.241075 0.023487 -0.026023 -0.108740 -0.176656 0.006903 0.117499 0.207485 -0.109151 0.092508 -0.027740 -0.058018 -0.050521 0.048265 -0.110218 0.171170 0.092432 0.101448 -0.205312 -0.096295 -0.099568 0.043601 -0.084822 0.038169 0.160124 -0.160226 -0.070933 0.097547 0.027295 -0.085469 -0.043689 0.006042 0.005699 -0.085045 -0.042961 0.000243 0.028155 -0.081918 0.072886 -0.028587 0.045745 0.004101 -0.005243 -0.013903 -0.049217 -0.219928 -0.060302 -0.198674 -0.097618 0.192502 -0.031777 0.000842 -0.015215 0.062259 0.138475 0.016138 0.051592 -0.090836 -0.057485 0.108828 -0.079164 -0.078809 0.055828 0.016471 -0.147894 0.058431 -0.125784 -0.036694 0.000554 -0.001215 0.239906 0.095774 -0.045890 -0.058955 -0.005080 -0.024793 0.011762 0.031486 -0.127991 -0.096809 -0.082603 0.190500 -0.132509 -0.053295 -0.048500 -0.044386 0.061197 -0.155199 -0.044467 0.104480 0.041314 0.159884
4 -0.067238 -0.238081 0.098901 0.013358 0.015149 -0.219592 0.096769 0.130703 0.068820 0.014044 -0.086308 0.085475 0.120010 -0.206299 0.030258 -0.256423 -0.090444 -0.124578 0.035819 -0.063330 0.218129 -0.017074 0.172245 -0.014675 0.000546 0.024687 0.055724 0.053224 0.097707 0.067594 -0.100849 0.076042 -0.127543 0.031181 -0.058686 -0.123052 0.191116 0.041984 0.005852 -0.082184 -0.106788 -0.037841 0.146591 0.210392 -0.116392 0.069654 0.003718 -0.067630 -0.006765 0.080897 -0.182799 0.136274 0.092241 0.139550 -0.214294 -0.097112 -0.064041 0.055801 -0.059432 -0.011820 0.186951 -0.153634 -0.054237 0.057485 -0.015474 -0.041470 -0.066330 0.017434 -0.006144 -0.125127 -0.071422 -0.037915 0.025549 -0.092660 0.139672 -0.020890 0.107994 -0.026369 -0.006475 -0.076401 -0.052067 -0.227063 -0.093973 -0.207816 -0.122794 0.093933 0.081365 -0.032335 0.036344 0.090270 0.153508 -0.019969 0.016076 -0.112417 -0.105909 0.068358 -0.065706 -0.197367 0.064559 0.086761 -0.133901 0.048137 -0.104699 -0.006927 -0.052649 -0.015343 0.195978 0.096738 -0.039478 -0.119173 0.003037 0.042830 0.022685 0.081663 -0.186295 -0.065978 -0.050939 0.207248 -0.170195 -0.094802 -0.026778 0.006331 0.097935 -0.179879 -0.136087 0.071933 0.073170 0.174805
14 -0.057864 -0.232460 0.085828 0.020591 0.017746 -0.190252 0.114169 0.107707 0.048694 0.016211 -0.101277 0.082299 0.113700 -0.205003 0.009778 -0.233976 -0.074523 -0.106346 0.007189 -0.039696 0.215091 -0.004607 0.190585 -0.005239 -0.018093 0.011588 0.029587 0.037514 0.067185 0.090791 -0.085322 0.089640 -0.126617 0.030471 -0.082818 -0.131882 0.207140 0.033187 -0.011238 -0.092307 -0.135773 -0.016183 0.138066 0.209839 -0.114263 0.080971 -0.004425 -0.061305 -0.021141 0.074767 -0.158737 0.151959 0.090874 0.122484 -0.201806 -0.099129 -0.085262 0.055107 -0.066384 0.001671 0.175863 -0.158886 -0.055924 0.067249 -0.001038 -0.056490 -0.050922 0.008637 -0.001034 -0.107367 -0.059524 -0.021286 0.020002 -0.079648 0.114000 -0.020243 0.081685 -0.017167 -0.007392 -0.056291 -0.048883 -0.212668 -0.077617 -0.193501 -0.116657 0.125732 0.036106 -0.018202 0.016857 0.079301 0.145602 -0.007702 0.030495 -0.098800 -0.088336 0.085515 -0.066013 -0.146332 0.063561 0.062528 -0.134418 0.049435 -0.110809 -0.018527 -0.037865 -0.013415 0.207297 0.096251 -0.043668 -0.095384 -0.004523 0.017287 0.013831 0.057220 -0.155443 -0.076623 -0.064599 0.192675 -0.156719 -0.071713 -0.033199 -0.011392 0.088306 -0.165824 -0.098206 0.078788 0.058467 0.163252
24 -0.033729 -0.206081 0.050583 0.044953 0.031362 -0.142775 0.172006 0.057936 -0.021665 0.011223 -0.136300 0.064428 0.133183 -0.232593 -0.069489 -0.204485 -0.030129 -0.061218 -0.071133 0.047472 0.227832 0.025310 0.262588 0.022607 -0.077965 -0.024473 -0.064919 -0.000614 0.016389 0.153859 -0.062693 0.125791 -0.129389 0.028668 -0.189081 -0.163098 0.272049 -0.000504 -0.035055 -0.123791 -0.212822 0.033259 0.107961 0.221363 -0.098782 0.108936 -0.060886 -0.057912 -0.078758 0.034142 -0.068258 0.188302 0.099944 0.090620 -0.207841 -0.087969 -0.121471 0.045746 -0.104439 0.067519 0.157314 -0.180616 -0.082156 0.112922 0.063274 -0.110064 -0.031486 -0.003702 0.009812 -0.058495 -0.022475 0.013327 0.037560 -0.083413 0.042660 -0.035821 0.022698 0.010847 0.000104 0.024800 -0.042006 -0.233760 -0.055627 -0.208208 -0.091395 0.253569 -0.099611 0.017565 -0.037241 0.056672 0.135362 0.036107 0.062933 -0.090513 -0.044645 0.144501 -0.097377 -0.018286 0.057985 -0.015384 -0.168867 0.071409 -0.126017 -0.050846 0.024188 -0.001315 0.271706 0.105189 -0.051743 -0.031040 -0.009658 -0.064038 0.001175 -0.000932 -0.110250 -0.119910 -0.108421 0.187107 -0.128808 -0.026125 -0.060188 -0.071125 0.040833 -0.156354 0.008519 0.134088 0.038809 0.157677
9 -0.059215 -0.232591 0.076703 0.024202 0.019372 -0.190443 0.125294 0.106736 0.048485 0.012426 -0.101825 0.083818 0.119541 -0.215169 -0.002009 -0.237216 -0.072908 -0.102191 -0.004463 -0.027414 0.214739 -0.000393 0.207323 -0.007287 -0.025721 0.006153 0.014684 0.025916 0.065589 0.098510 -0.084266 0.098386 -0.129148 0.025202 -0.095355 -0.140203 0.223224 0.031657 -0.017254 -0.094836 -0.149020 -0.017103 0.137978 0.215817 -0.118478 0.082214 -0.010336 -0.067168 -0.029390 0.063611 -0.151680 0.160508 0.090127 0.119378 -0.202232 -0.099580 -0.088633 0.049678 -0.071557 0.010250 0.177305 -0.160612 -0.066708 0.079963 0.010090 -0.068648 -0.050878 0.010466 -0.001360 -0.104969 -0.052284 -0.016829 0.028985 -0.087852 0.111335 -0.028339 0.073044 -0.008078 -0.011006 -0.043477 -0.047296 -0.222361 -0.082559 -0.208418 -0.116220 0.140178 0.022883 -0.013736 0.005322 0.081620 0.151659 -0.003391 0.040515 -0.094335 -0.083463 0.086883 -0.067394 -0.139914 0.064205 0.056556 -0.147200 0.051846 -0.121133 -0.023267 -0.027561 -0.012394 0.218336 0.102413 -0.046181 -0.094529 0.003310 0.010995 0.019026 0.051143 -0.158394 -0.086002 -0.071927 0.204056 -0.158202 -0.069040 -0.039718 -0.019597 0.083652 -0.166506 -0.096490 0.093991 0.059529 0.171529
30 -0.032336 -0.208708 0.045433 0.042135 0.022827 -0.143172 0.164212 0.060822 -0.012810 0.011831 -0.133326 0.066968 0.124179 -0.224280 -0.057624 -0.206231 -0.035256 -0.065291 -0.065499 0.039807 0.220821 0.017795 0.250337 0.011944 -0.066552 -0.023536 -0.048346 0.004061 0.020736 0.141981 -0.063040 0.114221 -0.123353 0.027624 -0.174131 -0.151618 0.255540 0.007341 -0.029670 -0.119254 -0.197871 0.024068 0.110682 0.218803 -0.098906 0.103448 -0.050959 -0.063929 -0.070790 0.040868 -0.083356 0.180971 0.102110 0.085797 -0.203078 -0.088942 -0.119997 0.046623 -0.094028 0.058571 0.159426 -0.177525 -0.074142 0.106415 0.060030 -0.100606 -0.035010 -0.004256 0.011909 -0.069169 -0.026760 0.007286 0.037751 -0.084239 0.053940 -0.034243 0.034336 0.012149 -0.000240 0.013674 -0.049883 -0.230991 -0.064048 -0.206877 -0.092018 0.236518 -0.079837 0.011171 -0.032385 0.059174 0.141711 0.024834 0.058306 -0.086800 -0.049721 0.132178 -0.096815 -0.036503 0.060133 -0.003651 -0.156574 0.064516 -0.128081 -0.052669 0.014986 -0.007722 0.260998 0.103880 -0.054586 -0.043113 -0.014585 -0.053270 0.000748 0.003008 -0.111632 -0.112419 -0.103996 0.187650 -0.135703 -0.030678 -0.060812 -0.058828 0.048505 -0.154860 -0.007194 0.125920 0.046748 0.157100
8 -0.060591 -0.232418 0.088858 0.019870 0.011853 -0.195423 0.107492 0.114246 0.057523 0.016622 -0.090604 0.079974 0.108915 -0.197977 0.021894 -0.238027 -0.078526 -0.111575 0.022514 -0.047626 0.206097 -0.012236 0.177656 -0.014389 -0.007736 0.016907 0.039057 0.040969 0.076917 0.079937 -0.089100 0.081361 -0.120991 0.029195 -0.071157 -0.124460 0.198177 0.037655 -0.003146 -0.083102 -0.121283 -0.024228 0.135578 0.203770 -0.113702 0.077799 0.000080 -0.064123 -0.014315 0.076833 -0.167700 0.142540 0.090241 0.124841 -0.201935 -0.096969 -0.075774 0.049688 -0.060633 -0.004832 0.172825 -0.150531 -0.054338 0.065747 -0.006713 -0.055429 -0.053624 0.012295 -0.003452 -0.114221 -0.062983 -0.030008 0.018435 -0.081894 0.120479 -0.020067 0.086134 -0.019655 -0.007554 -0.062701 -0.047072 -0.212577 -0.085191 -0.194910 -0.118154 0.108596 0.057926 -0.021966 0.022041 0.079027 0.148235 -0.013740 0.025849 -0.098534 -0.091171 0.070401 -0.060565 -0.170019 0.060122 0.067914 -0.126360 0.043656 -0.112144 -0.015313 -0.038157 -0.017263 0.197011 0.088736 -0.037728 -0.105303 -0.002207 0.033173 0.020597 0.065415 -0.168537 -0.066012 -0.056064 0.192383 -0.159467 -0.081206 -0.031769 -0.005877 0.096343 -0.163764 -0.113478 0.071083 0.064432 0.159858
6 -0.085391 -0.285377 0.108940 0.028215 0.010638 -0.236389 0.101276 0.160463 0.125905 0.014834 -0.068480 0.108216 0.103552 -0.204536 0.069017 -0.279256 -0.116219 -0.166580 0.055670 -0.109829 0.219518 -0.037108 0.166281 -0.034994 0.038462 0.015087 0.086075 0.040312 0.105777 0.058257 -0.109847 0.073454 -0.125696 0.012835 -0.009048 -0.119607 0.188603 0.076609 -0.011411 -0.083022 -0.096748 -0.046968 0.181420 0.207732 -0.147220 0.064313 0.054767 -0.078395 0.026694 0.104711 -0.223262 0.152704 0.070773 0.136478 -0.182437 -0.120528 -0.061888 0.050302 -0.018400 -0.050469 0.198815 -0.132270 -0.038132 0.053713 -0.050690 -0.034479 -0.073036 0.030584 -0.006376 -0.149642 -0.071834 -0.040224 -0.004241 -0.076830 0.168349 -0.020215 0.117575 -0.022279 -0.027539 -0.105437 -0.056435 -0.176376 -0.090455 -0.178571 -0.135452 0.009668 0.141260 -0.034225 0.040440 0.105543 0.157650 -0.035986 0.025092 -0.079614 -0.107635 0.042318 -0.019908 -0.253132 0.076294 0.117881 -0.111529 0.041185 -0.114767 -0.003772 -0.089243 -0.020058 0.158691 0.091712 -0.026729 -0.143859 0.020633 0.085181 0.024144 0.093766 -0.188456 -0.038104 -0.025284 0.202843 -0.177051 -0.101419 -0.012950 0.032509 0.141552 -0.169208 -0.207932 0.044604 0.079357 0.178612
28 -0.050174 -0.226795 0.066410 0.038605 0.028786 -0.161895 0.162892 0.076978 -0.002336 0.010603 -0.131523 0.075261 0.131600 -0.231212 -0.051271 -0.223780 -0.043362 -0.080348 -0.048230 0.025044 0.227270 0.014789 0.251191 0.011792 -0.061332 -0.014632 -0.041729 0.013342 0.037905 0.137925 -0.071420 0.122867 -0.127032 0.033570 -0.162163 -0.162225 0.260120 0.013383 -0.026719 -0.113939 -0.198831 0.011789 0.123391 0.226169 -0.111097 0.097373 -0.047276 -0.065223 -0.067984 0.047152 -0.102781 0.182888 0.103272 0.097341 -0.209986 -0.097191 -0.117637 0.044372 -0.098783 0.051325 0.163638 -0.177081 -0.073682 0.104805 0.049152 -0.095508 -0.036463 0.003714 0.004630 -0.077566 -0.034182 0.005232 0.031503 -0.085948 0.061157 -0.031311 0.041912 0.009133 -0.004096 0.003236 -0.045743 -0.232174 -0.060028 -0.206516 -0.096854 0.222091 -0.059294 0.008994 -0.024980 0.065364 0.139288 0.023673 0.051347 -0.092858 -0.055795 0.122886 -0.090012 -0.051752 0.061249 0.005347 -0.161684 0.068210 -0.128168 -0.045081 0.010902 -0.000366 0.254669 0.105093 -0.046759 -0.054472 -0.007890 -0.038437 0.001827 0.014578 -0.119047 -0.109527 -0.096961 0.189070 -0.137746 -0.042409 -0.053054 -0.053620 0.052458 -0.154843 -0.029836 0.113449 0.045023 0.159721
7 -0.091193 -0.297621 0.119554 0.015073 0.002950 -0.259291 0.082414 0.180500 0.155193 0.015992 -0.058291 0.118177 0.105292 -0.207044 0.097924 -0.299462 -0.135287 -0.183519 0.079639 -0.140947 0.224539 -0.046342 0.147465 -0.037467 0.057720 0.029460 0.114079 0.056816 0.128022 0.033905 -0.121978 0.069376 -0.134776 0.012815 0.021208 -0.113446 0.168797 0.080092 0.001737 -0.073555 -0.071256 -0.066695 0.192680 0.215089 -0.152161 0.058035 0.068879 -0.077298 0.045057 0.115514 -0.259753 0.142739 0.072379 0.156483 -0.193082 -0.120163 -0.048298 0.055552 -0.009385 -0.065162 0.212117 -0.134352 -0.033515 0.043606 -0.074891 -0.015172 -0.080431 0.040616 -0.007738 -0.173185 -0.091263 -0.051514 -0.006956 -0.086727 0.200047 -0.015097 0.142018 -0.037150 -0.028552 -0.139768 -0.057744 -0.184215 -0.108831 -0.186281 -0.156874 -0.026489 0.185414 -0.044973 0.061478 0.120484 0.173441 -0.051948 0.015844 -0.095232 -0.129492 0.027580 -0.012192 -0.310549 0.076078 0.151195 -0.113432 0.039913 -0.117681 0.004689 -0.109871 -0.031388 0.148303 0.091801 -0.024299 -0.170969 0.022828 0.116258 0.030025 0.113684 -0.221813 -0.031908 -0.016872 0.217800 -0.198934 -0.120652 -0.008947 0.055653 0.163400 -0.178818 -0.248225 0.027961 0.091075 0.198541
11 -0.077536 -0.268630 0.096142 0.027598 0.014781 -0.216944 0.108269 0.139583 0.099570 0.010894 -0.083589 0.099960 0.105843 -0.202555 0.045631 -0.264994 -0.099493 -0.142766 0.030163 -0.080555 0.222142 -0.024115 0.184115 -0.020173 0.012651 0.006681 0.055258 0.036543 0.083617 0.068085 -0.097176 0.083469 -0.122990 0.012598 -0.039963 -0.120928 0.200889 0.060853 -0.012016 -0.082354 -0.111677 -0.029945 0.165288 0.207571 -0.134205 0.073157 0.034455 -0.067216 0.003763 0.090543 -0.190901 0.155805 0.079209 0.125817 -0.187057 -0.114437 -0.071382 0.052211 -0.039539 -0.024664 0.184552 -0.143108 -0.041537 0.065349 -0.032113 -0.043873 -0.066215 0.022357 0.001584 -0.134799 -0.064686 -0.030778 0.003186 -0.082116 0.145752 -0.021360 0.099243 -0.022101 -0.023977 -0.084342 -0.050491 -0.185643 -0.086335 -0.185265 -0.133694 0.058366 0.097214 -0.023235 0.028288 0.096118 0.150361 -0.026786 0.031402 -0.081104 -0.094743 0.056957 -0.033735 -0.206625 0.068475 0.097456 -0.118578 0.050595 -0.117739 -0.013499 -0.066887 -0.020700 0.181649 0.087015 -0.031699 -0.123813 0.010520 0.059110 0.015545 0.071487 -0.172746 -0.057053 -0.044542 0.201582 -0.167997 -0.088313 -0.021750 0.012993 0.124082 -0.165830 -0.163647 0.054964 0.065867 0.175549
31 -0.045679 -0.214159 0.069381 0.030693 0.020756 -0.171924 0.135469 0.080893 0.014126 0.013285 -0.111414 0.074924 0.123589 -0.214489 -0.024450 -0.220572 -0.057727 -0.082951 -0.024004 -0.000222 0.216130 0.004285 0.214845 0.007962 -0.041579 -0.004266 -0.008383 0.024223 0.047942 0.113350 -0.075835 0.105390 -0.126906 0.031776 -0.127226 -0.139810 0.228880 0.018435 -0.015744 -0.107097 -0.164049 0.004154 0.120833 0.207435 -0.107561 0.091688 -0.031952 -0.063987 -0.046346 0.058168 -0.123329 0.166866 0.096213 0.104139 -0.204739 -0.094581 -0.096197 0.046536 -0.086832 0.029416 0.169409 -0.166402 -0.071621 0.084706 0.025720 -0.080337 -0.046557 0.001526 0.001820 -0.085817 -0.043493 -0.011980 0.031026 -0.082883 0.084708 -0.027696 0.061175 -0.004744 0.001566 -0.020458 -0.046569 -0.223896 -0.071524 -0.205633 -0.101367 0.179872 -0.022980 -0.007140 -0.007732 0.065681 0.138328 0.013369 0.046918 -0.095620 -0.072997 0.106025 -0.082599 -0.092550 0.059539 0.031725 -0.149397 0.057081 -0.116788 -0.035589 -0.008817 -0.008184 0.231959 0.099222 -0.041887 -0.067617 -0.010502 -0.018787 0.007621 0.030182 -0.134965 -0.091448 -0.083028 0.191848 -0.145583 -0.053668 -0.047446 -0.036792 0.063173 -0.162621 -0.054093 0.103947 0.045751 0.156535
26 -0.045253 -0.214041 0.059091 0.030390 0.028334 -0.165396 0.156448 0.070035 -0.004079 0.007624 -0.128589 0.063329 0.130309 -0.223853 -0.048611 -0.210011 -0.037262 -0.075072 -0.045859 0.024910 0.225230 0.016468 0.243826 0.013899 -0.062114 -0.021637 -0.037976 0.008608 0.032173 0.134681 -0.060795 0.113919 -0.118892 0.024104 -0.160834 -0.152697 0.245749 0.013327 -0.029174 -0.110582 -0.187032 0.007983 0.108843 0.206701 -0.107205 0.102107 -0.043837 -0.059197 -0.060281 0.049668 -0.095591 0.177286 0.096313 0.093174 -0.209523 -0.094020 -0.100318 0.043442 -0.098241 0.052604 0.155859 -0.165027 -0.073592 0.103363 0.041156 -0.091964 -0.034315 -0.004294 0.006121 -0.074605 -0.035279 0.000684 0.031365 -0.081472 0.067595 -0.036478 0.033753 0.007486 -0.001451 -0.005758 -0.052083 -0.220904 -0.059844 -0.202418 -0.089876 0.213664 -0.058693 0.003590 -0.025041 0.057827 0.136980 0.021588 0.056754 -0.085169 -0.051878 0.113457 -0.088547 -0.056801 0.062130 0.007162 -0.154409 0.061186 -0.123928 -0.035916 0.012241 -0.001422 0.249347 0.100430 -0.039448 -0.048441 -0.013821 -0.036756 0.010048 0.024632 -0.122270 -0.106000 -0.086394 0.183576 -0.126603 -0.052359 -0.052592 -0.052639 0.048540 -0.159878 -0.028296 0.119536 0.037220 0.148938
20 -0.058508 -0.229412 0.085222 0.021062 0.013939 -0.196945 0.115829 0.109953 0.045800 0.012960 -0.098626 0.075957 0.117899 -0.202391 0.009702 -0.234505 -0.079222 -0.105585 0.009711 -0.042334 0.215233 -0.009702 0.191759 -0.007439 -0.016644 0.014199 0.033232 0.035909 0.074651 0.082512 -0.089064 0.084952 -0.121641 0.027912 -0.079716 -0.125345 0.205169 0.030137 -0.008827 -0.092157 -0.129426 -0.020559 0.129993 0.202352 -0.109949 0.078702 -0.003589 -0.061865 -0.018973 0.069083 -0.159370 0.146977 0.092393 0.117556 -0.202818 -0.094625 -0.077861 0.049066 -0.067949 0.006293 0.176549 -0.151538 -0.057159 0.069721 -0.000441 -0.059297 -0.054386 0.012466 -0.002916 -0.104290 -0.061048 -0.024922 0.021330 -0.084679 0.113680 -0.019936 0.084672 -0.019008 -0.004135 -0.053368 -0.048324 -0.220750 -0.081951 -0.205714 -0.112543 0.127555 0.038033 -0.017892 0.015171 0.082372 0.150681 -0.007139 0.028706 -0.102366 -0.086587 0.081120 -0.064379 -0.153480 0.059152 0.065417 -0.135130 0.047384 -0.113305 -0.015038 -0.034239 -0.012118 0.205296 0.093360 -0.036559 -0.094281 -0.003040 0.024378 0.017544 0.062116 -0.164766 -0.077581 -0.058547 0.197043 -0.156325 -0.076256 -0.033778 -0.006704 0.089034 -0.168866 -0.099989 0.082596 0.058498 0.163713
29 -0.048577 -0.217955 0.064194 0.030353 0.024578 -0.169241 0.140281 0.079723 0.015568 0.012600 -0.113993 0.074567 0.118744 -0.215501 -0.027988 -0.220695 -0.055568 -0.088249 -0.026475 0.002688 0.218886 0.005805 0.219716 0.004371 -0.048174 -0.009394 -0.015350 0.016669 0.047954 0.120363 -0.071123 0.103342 -0.122777 0.028118 -0.136477 -0.144719 0.239358 0.021463 -0.020232 -0.109270 -0.166725 0.005352 0.118808 0.208891 -0.105291 0.096833 -0.031196 -0.063415 -0.050824 0.055455 -0.119046 0.168264 0.093055 0.103771 -0.208764 -0.090981 -0.096954 0.051173 -0.081533 0.036214 0.166130 -0.168470 -0.071309 0.091385 0.026538 -0.084866 -0.045015 0.002388 0.006288 -0.080438 -0.043748 -0.006602 0.026208 -0.079126 0.078944 -0.026113 0.056456 -0.001153 -0.001904 -0.018316 -0.049952 -0.219621 -0.066228 -0.205348 -0.100248 0.184454 -0.022820 -0.005470 -0.011002 0.063855 0.141471 0.009543 0.045390 -0.090762 -0.062041 0.111145 -0.082922 -0.084285 0.060782 0.022436 -0.150795 0.060490 -0.120402 -0.033272 -0.003959 -0.007017 0.230507 0.095294 -0.043363 -0.063778 -0.004696 -0.017988 0.007394 0.027827 -0.135587 -0.098005 -0.082586 0.185159 -0.138282 -0.052958 -0.047284 -0.038094 0.062031 -0.160303 -0.048613 0.106697 0.046161 0.153716
25 -0.051141 -0.220397 0.057577 0.031594 0.022130 -0.165737 0.148495 0.071882 0.009705 0.009637 -0.127716 0.064352 0.125984 -0.216027 -0.043099 -0.217002 -0.038989 -0.081426 -0.036934 0.021379 0.226503 0.011165 0.239771 0.012357 -0.055353 -0.020892 -0.026681 0.011538 0.031306 0.131296 -0.064671 0.112022 -0.121329 0.022643 -0.156955 -0.149802 0.243196 0.021480 -0.031583 -0.115815 -0.190944 0.011673 0.115661 0.210060 -0.105346 0.103346 -0.033949 -0.056635 -0.051467 0.051212 -0.113006 0.182757 0.099895 0.102109 -0.215098 -0.096992 -0.100374 0.040398 -0.091969 0.049840 0.159455 -0.163689 -0.071229 0.097773 0.031736 -0.092977 -0.040306 0.003313 0.000503 -0.076636 -0.039349 -0.002484 0.032345 -0.075663 0.066225 -0.036573 0.035919 0.008722 0.000663 -0.009802 -0.049118 -0.227447 -0.061111 -0.206780 -0.096473 0.202794 -0.047316 -0.002953 -0.026057 0.058137 0.135920 0.016246 0.056868 -0.093103 -0.056088 0.115889 -0.084831 -0.068601 0.061245 0.014102 -0.159940 0.063656 -0.128760 -0.034896 0.007227 -0.003386 0.247986 0.102789 -0.041455 -0.056389 -0.010355 -0.031754 0.011489 0.023862 -0.130799 -0.106670 -0.083260 0.185998 -0.135427 -0.051321 -0.049198 -0.040966 0.054419 -0.160019 -0.038138 0.118344 0.036659 0.155556
5 -0.087034 -0.295922 0.108068 0.024325 0.013892 -0.246777 0.107130 0.158257 0.128708 0.013121 -0.071528 0.113813 0.107172 -0.210446 0.067961 -0.290410 -0.118411 -0.168684 0.054339 -0.105223 0.229976 -0.030751 0.169556 -0.027181 0.034163 0.015596 0.084546 0.043624 0.107061 0.058228 -0.115452 0.078844 -0.135781 0.017685 -0.012654 -0.127724 0.195493 0.074373 -0.007491 -0.082511 -0.095719 -0.050252 0.179661 0.218133 -0.150181 0.066564 0.049952 -0.077347 0.021494 0.102623 -0.229331 0.159337 0.081682 0.139007 -0.193152 -0.123797 -0.064020 0.055218 -0.024541 -0.049346 0.203883 -0.148236 -0.041443 0.061580 -0.053181 -0.036001 -0.070686 0.029769 -0.002588 -0.156744 -0.080612 -0.040300 -0.002139 -0.089753 0.173334 -0.024337 0.117977 -0.030662 -0.028502 -0.112383 -0.059208 -0.196643 -0.099805 -0.194268 -0.148991 0.021989 0.140549 -0.029876 0.044730 0.109828 0.168530 -0.038344 0.025750 -0.090107 -0.116034 0.048240 -0.031021 -0.261037 0.080376 0.125235 -0.128787 0.046760 -0.123240 -0.010252 -0.090573 -0.024358 0.176909 0.094159 -0.035335 -0.148961 0.014717 0.083039 0.027460 0.093709 -0.203091 -0.045074 -0.029616 0.218697 -0.184637 -0.104590 -0.017731 0.033935 0.144224 -0.180533 -0.210670 0.051598 0.078167 0.196467
19 -0.034637 -0.205585 0.056404 0.034238 0.024559 -0.144734 0.151957 0.062108 -0.004870 0.010700 -0.127532 0.069034 0.120912 -0.215336 -0.050959 -0.201162 -0.041833 -0.071013 -0.050293 0.032782 0.216523 0.013621 0.236409 0.016442 -0.062719 -0.013724 -0.043955 0.008604 0.026354 0.132295 -0.064509 0.114528 -0.120922 0.025936 -0.163292 -0.151781 0.243588 0.010557 -0.025982 -0.111858 -0.190952 0.017894 0.111129 0.210855 -0.096466 0.102059 -0.044183 -0.062590 -0.066215 0.044015 -0.092007 0.174962 0.094857 0.089597 -0.199473 -0.087388 -0.115694 0.047053 -0.090736 0.051247 0.159571 -0.175746 -0.071580 0.104284 0.048841 -0.097097 -0.030863 -0.002206 0.004459 -0.070699 -0.028805 0.003896 0.035499 -0.079602 0.054224 -0.034428 0.039818 0.008560 -0.003886 0.002161 -0.044699 -0.221640 -0.058749 -0.202669 -0.094055 0.218376 -0.063116 0.008325 -0.028358 0.055555 0.133892 0.027854 0.057905 -0.085744 -0.055406 0.126967 -0.089499 -0.044293 0.058353 -0.000710 -0.150837 0.062760 -0.123067 -0.045595 0.011862 -0.004332 0.244424 0.099126 -0.047959 -0.046054 -0.013194 -0.043598 0.004206 0.006679 -0.109282 -0.101179 -0.090549 0.182905 -0.132817 -0.033371 -0.054072 -0.055789 0.045433 -0.153357 -0.018323 0.116060 0.036716 0.146443
23 -0.041679 -0.206898 0.056613 0.033592 0.023573 -0.154386 0.145255 0.078330 0.005743 0.009638 -0.120691 0.070508 0.121793 -0.217864 -0.039847 -0.207781 -0.047815 -0.071923 -0.038816 0.017605 0.213476 0.010029 0.225061 0.011996 -0.052274 -0.012455 -0.031658 0.010663 0.034157 0.124770 -0.067890 0.108562 -0.122144 0.029098 -0.146546 -0.146073 0.235472 0.008967 -0.025405 -0.104190 -0.175886 0.011617 0.115781 0.208219 -0.098531 0.092469 -0.039661 -0.058302 -0.057879 0.047578 -0.099431 0.165268 0.097921 0.092820 -0.200538 -0.092819 -0.106197 0.045986 -0.087154 0.039985 0.160088 -0.167529 -0.068737 0.094207 0.043853 -0.086064 -0.034911 0.002906 0.007556 -0.072602 -0.033878 -0.002601 0.036984 -0.080869 0.065068 -0.028091 0.050226 0.002058 0.002016 -0.005510 -0.041610 -0.221127 -0.061915 -0.200994 -0.097235 0.201280 -0.046152 0.002582 -0.019579 0.060984 0.138034 0.020255 0.045177 -0.089098 -0.065635 0.112408 -0.082684 -0.068007 0.057111 0.018737 -0.148631 0.056607 -0.113689 -0.042202 0.002366 -0.011755 0.231892 0.094667 -0.043045 -0.054263 -0.012588 -0.030642 0.003988 0.015514 -0.122806 -0.098025 -0.089469 0.184560 -0.135642 -0.043320 -0.047990 -0.042941 0.053864 -0.155303 -0.031471 0.104862 0.045462 0.149879
15 -0.040655 -0.209965 0.057187 0.034259 0.027125 -0.145314 0.161333 0.063452 -0.009595 0.010212 -0.128216 0.068591 0.126888 -0.224340 -0.050433 -0.211868 -0.043914 -0.071210 -0.060454 0.026568 0.225917 0.019585 0.246562 0.015953 -0.068132 -0.016583 -0.048097 0.009007 0.029791 0.134328 -0.068868 0.117959 -0.122722 0.030507 -0.166222 -0.154568 0.251679 0.005105 -0.022959 -0.112649 -0.196729 0.020374 0.111597 0.218178 -0.097705 0.104745 -0.053920 -0.062589 -0.070247 0.041515 -0.087470 0.176738 0.100047 0.095051 -0.209466 -0.093720 -0.119567 0.043641 -0.094345 0.057757 0.162302 -0.171989 -0.075518 0.098787 0.056559 -0.091959 -0.032485 -0.002976 0.012363 -0.065629 -0.026563 0.001446 0.038990 -0.087581 0.053552 -0.031700 0.040866 0.004864 -0.003793 0.004360 -0.043960 -0.223640 -0.061112 -0.207344 -0.096005 0.223416 -0.071241 0.005192 -0.025600 0.061744 0.138600 0.028607 0.055869 -0.090956 -0.058531 0.129529 -0.090628 -0.037923 0.059344 0.003803 -0.150903 0.062008 -0.123358 -0.045709 0.016723 -0.009600 0.252488 0.100049 -0.049920 -0.047863 -0.010834 -0.045835 0.000143 0.004173 -0.115466 -0.103188 -0.096700 0.188107 -0.135303 -0.031663 -0.052790 -0.060343 0.051261 -0.150238 -0.015205 0.118245 0.046091 0.154231
13 -0.062600 -0.241582 0.093712 0.015048 0.012661 -0.209325 0.105980 0.120958 0.070590 0.017237 -0.090493 0.083607 0.114867 -0.206450 0.028578 -0.249356 -0.091180 -0.122437 0.025822 -0.061985 0.216934 -0.015213 0.174015 -0.012518 -0.006224 0.017160 0.052108 0.045339 0.086717 0.073631 -0.097014 0.083149 -0.126259 0.024482 -0.059715 -0.126085 0.197418 0.046395 -0.002301 -0.085023 -0.110698 -0.030223 0.144148 0.207139 -0.118871 0.076130 0.008790 -0.064080 -0.009266 0.081616 -0.180418 0.146164 0.089432 0.131376 -0.203388 -0.102110 -0.072933 0.049998 -0.052804 -0.013347 0.180963 -0.148035 -0.054889 0.059410 -0.012904 -0.051253 -0.061798 0.014076 -0.000286 -0.123602 -0.068501 -0.033301 0.018848 -0.087593 0.131937 -0.024775 0.094296 -0.023869 -0.012641 -0.074944 -0.050128 -0.214039 -0.088828 -0.200216 -0.125852 0.092369 0.073826 -0.025090 0.023908 0.091010 0.155565 -0.019256 0.021402 -0.103868 -0.095847 0.064915 -0.056413 -0.188129 0.060608 0.080900 -0.125436 0.047232 -0.110274 -0.013286 -0.050017 -0.020699 0.195132 0.089992 -0.037536 -0.116190 0.006215 0.039390 0.019651 0.074525 -0.177147 -0.069274 -0.054293 0.201355 -0.161263 -0.088407 -0.027385 0.006305 0.104039 -0.165581 -0.130880 0.071720 0.067605 0.170817
10 -0.049817 -0.218800 0.067045 0.028342 0.022970 -0.168516 0.134906 0.087432 0.027895 0.009085 -0.107591 0.074878 0.115598 -0.205953 -0.020505 -0.216511 -0.055521 -0.087127 -0.021681 -0.006037 0.214763 0.003381 0.211625 0.006322 -0.039618 -0.005518 -0.003107 0.019682 0.050272 0.105828 -0.078287 0.096249 -0.118498 0.029713 -0.121875 -0.138142 0.223420 0.019897 -0.020357 -0.102767 -0.158162 -0.003499 0.124806 0.207003 -0.103665 0.090841 -0.019883 -0.061371 -0.036114 0.054486 -0.123490 0.161305 0.094204 0.104016 -0.200779 -0.090272 -0.090592 0.044124 -0.080634 0.028899 0.164908 -0.158999 -0.068932 0.084835 0.021527 -0.073632 -0.045852 0.003217 -0.000714 -0.091562 -0.041972 -0.014332 0.031675 -0.081579 0.089395 -0.026671 0.058830 -0.006477 -0.007094 -0.027868 -0.051180 -0.217977 -0.069435 -0.195870 -0.105573 0.165680 -0.012204 -0.008966 -0.004692 0.066942 0.142430 0.008153 0.045306 -0.089185 -0.069195 0.101427 -0.075397 -0.104068 0.060825 0.036460 -0.143043 0.054089 -0.115264 -0.029132 -0.013673 -0.009705 0.226395 0.099033 -0.045063 -0.069803 -0.001966 -0.012921 0.013381 0.035477 -0.136056 -0.088896 -0.073325 0.189653 -0.142151 -0.061033 -0.042579 -0.031422 0.068029 -0.155967 -0.059313 0.096144 0.047406 0.157120
18 -0.059547 -0.239020 0.084516 0.019918 0.018894 -0.204787 0.114406 0.117191 0.056451 0.018526 -0.100830 0.085543 0.123005 -0.213170 0.013781 -0.250597 -0.081680 -0.111473 0.007684 -0.040105 0.226219 -0.009309 0.200630 -0.006408 -0.011421 0.014515 0.032959 0.037647 0.078874 0.089794 -0.090849 0.091332 -0.126105 0.031222 -0.080119 -0.134190 0.206364 0.034004 -0.006384 -0.088412 -0.131113 -0.017476 0.134600 0.208421 -0.117522 0.083504 -0.008247 -0.063896 -0.017266 0.073275 -0.162334 0.147834 0.094842 0.127969 -0.207372 -0.095638 -0.077721 0.049236 -0.066972 0.001322 0.178695 -0.158509 -0.058292 0.068330 0.001689 -0.056785 -0.054275 0.009554 0.003203 -0.106742 -0.063227 -0.027545 0.025556 -0.090043 0.122190 -0.020577 0.090267 -0.017214 -0.004032 -0.060375 -0.054783 -0.216108 -0.081533 -0.207462 -0.121162 0.123022 0.047226 -0.020253 0.014885 0.086620 0.152169 -0.012443 0.032874 -0.104281 -0.095480 0.082157 -0.068342 -0.156790 0.066902 0.065592 -0.137080 0.053682 -0.112892 -0.017467 -0.036251 -0.014660 0.206084 0.091909 -0.040155 -0.103407 -0.003889 0.021465 0.014442 0.059881 -0.166331 -0.078997 -0.061198 0.196032 -0.156178 -0.081115 -0.034294 -0.011613 0.091261 -0.171102 -0.105733 0.077748 0.059642 0.165399
21 -0.051420 -0.218253 0.064844 0.030739 0.021196 -0.166351 0.146930 0.080064 0.015580 0.014798 -0.118354 0.074431 0.122518 -0.221959 -0.032428 -0.219243 -0.050828 -0.085500 -0.033856 0.006928 0.221726 0.008016 0.229008 0.008060 -0.046922 -0.013529 -0.020332 0.015651 0.042513 0.121499 -0.069654 0.108131 -0.123811 0.028563 -0.141451 -0.149823 0.238885 0.022393 -0.021243 -0.106200 -0.178972 0.010285 0.120831 0.211139 -0.111124 0.093926 -0.030014 -0.062257 -0.048376 0.053189 -0.108399 0.173876 0.096601 0.098642 -0.203372 -0.093420 -0.103205 0.043726 -0.085768 0.040242 0.160407 -0.164467 -0.069252 0.095800 0.037354 -0.085256 -0.040354 0.000182 0.004011 -0.085563 -0.033944 -0.007753 0.030053 -0.079330 0.076548 -0.029632 0.047787 -0.001331 -0.003185 -0.011082 -0.048104 -0.214559 -0.066016 -0.201562 -0.101627 0.183766 -0.034913 -0.001052 -0.011776 0.063941 0.140920 0.016459 0.046341 -0.082917 -0.062123 0.108330 -0.080601 -0.075743 0.061236 0.020452 -0.147753 0.057829 -0.120292 -0.034730 0.000835 -0.005157 0.231718 0.093769 -0.045703 -0.063007 -0.001644 -0.019456 0.006197 0.025839 -0.127301 -0.092053 -0.086548 0.185495 -0.136819 -0.044270 -0.047759 -0.041718 0.062390 -0.156417 -0.044530 0.104971 0.049921 0.152137
22 -0.060491 -0.237806 0.090098 0.017757 0.013645 -0.206478 0.103930 0.119560 0.062687 0.013647 -0.089877 0.085081 0.114295 -0.203858 0.027930 -0.246269 -0.088702 -0.119116 0.026865 -0.054392 0.214222 -0.014239 0.180885 -0.011438 -0.006701 0.019852 0.044240 0.038295 0.086085 0.077267 -0.092744 0.077284 -0.127813 0.028449 -0.064800 -0.127621 0.193707 0.038399 -0.005117 -0.087709 -0.111499 -0.032005 0.139086 0.208097 -0.115988 0.078171 0.001217 -0.062399 -0.007114 0.077741 -0.175917 0.141254 0.084570 0.126864 -0.198923 -0.098825 -0.069748 0.056808 -0.055488 -0.010689 0.180734 -0.148849 -0.052519 0.065490 -0.012643 -0.048542 -0.062022 0.016813 0.001171 -0.115227 -0.066568 -0.030424 0.019774 -0.087619 0.133112 -0.018846 0.093243 -0.022223 -0.004927 -0.071966 -0.053667 -0.214374 -0.085149 -0.204549 -0.122263 0.096725 0.069431 -0.027804 0.028775 0.086731 0.154529 -0.017101 0.024936 -0.105014 -0.098378 0.071699 -0.059994 -0.179456 0.067693 0.076703 -0.129756 0.047980 -0.107830 -0.011513 -0.045054 -0.014657 0.196033 0.095104 -0.037510 -0.110017 0.003866 0.037864 0.021919 0.072566 -0.175006 -0.068323 -0.056282 0.199251 -0.165270 -0.087355 -0.027522 -0.001285 0.101186 -0.171127 -0.124357 0.072033 0.068804 0.168887
16 -0.041445 -0.201591 0.057529 0.033095 0.021485 -0.149691 0.144034 0.070632 0.006463 0.011835 -0.116319 0.069529 0.114092 -0.205076 -0.033019 -0.205968 -0.049368 -0.078423 -0.043977 0.010134 0.206983 0.012019 0.223536 0.008140 -0.048635 -0.012411 -0.026318 0.011075 0.034331 0.116780 -0.068818 0.106180 -0.118628 0.023524 -0.137233 -0.138634 0.231806 0.010268 -0.025712 -0.106207 -0.171434 0.014634 0.113070 0.200493 -0.096213 0.089721 -0.033576 -0.055502 -0.056358 0.049671 -0.093293 0.162171 0.090922 0.092451 -0.188002 -0.086381 -0.101559 0.044175 -0.081481 0.037812 0.154268 -0.162012 -0.068506 0.086924 0.040716 -0.085093 -0.035996 0.004680 0.005667 -0.076466 -0.029610 -0.005298 0.031357 -0.079923 0.068747 -0.029801 0.047616 -0.000047 -0.004076 -0.004950 -0.040091 -0.210015 -0.060680 -0.192754 -0.092384 0.192723 -0.042414 0.005942 -0.016419 0.061552 0.128815 0.018802 0.043734 -0.082774 -0.057286 0.112527 -0.076467 -0.065413 0.055657 0.010843 -0.139765 0.059377 -0.111254 -0.041059 0.000240 -0.010632 0.225899 0.092893 -0.040669 -0.053078 -0.008324 -0.024694 0.001144 0.019054 -0.115916 -0.092645 -0.086363 0.179410 -0.129540 -0.043985 -0.048528 -0.042247 0.054270 -0.148873 -0.030671 0.106155 0.044966 0.151028
27 -0.046425 -0.222900 0.063368 0.028862 0.024355 -0.165366 0.145260 0.088890 0.013737 0.012831 -0.118846 0.072322 0.121654 -0.215318 -0.029621 -0.223034 -0.049747 -0.087807 -0.033096 -0.001599 0.222839 0.009614 0.229480 0.009353 -0.045158 -0.012112 -0.022043 0.021154 0.043672 0.120310 -0.073482 0.104403 -0.127042 0.026117 -0.132801 -0.149981 0.235322 0.017468 -0.023399 -0.108229 -0.177252 0.004632 0.124061 0.216070 -0.107632 0.094785 -0.026960 -0.063737 -0.049467 0.057326 -0.112399 0.172406 0.093055 0.107748 -0.206157 -0.098520 -0.104114 0.049805 -0.079844 0.037644 0.163725 -0.162728 -0.072481 0.090907 0.034309 -0.081411 -0.043649 0.006806 0.004516 -0.084667 -0.042409 -0.003568 0.032173 -0.087676 0.076230 -0.032035 0.057892 -0.004685 -0.005467 -0.016110 -0.049141 -0.221801 -0.068192 -0.199627 -0.106486 0.186052 -0.024576 -0.002842 -0.015153 0.070284 0.138519 0.010429 0.047104 -0.089528 -0.069930 0.109816 -0.078411 -0.087654 0.064756 0.022827 -0.152546 0.059141 -0.116012 -0.039715 -0.002327 -0.006554 0.237975 0.095201 -0.048445 -0.062258 -0.003495 -0.019588 0.006923 0.025694 -0.128862 -0.097260 -0.084022 0.191036 -0.144829 -0.051347 -0.049004 -0.035524 0.066520 -0.159755 -0.053577 0.106056 0.051206 0.159205
17 -0.084027 -0.288353 0.107885 0.028054 0.007082 -0.242341 0.108628 0.158327 0.125128 0.019185 -0.076593 0.113585 0.112209 -0.209311 0.059423 -0.280382 -0.112888 -0.165630 0.046142 -0.097112 0.228897 -0.036047 0.179790 -0.031086 0.032590 0.018558 0.077853 0.043806 0.104390 0.065580 -0.109917 0.081851 -0.128807 0.014124 -0.023367 -0.128491 0.198302 0.071843 -0.008851 -0.081848 -0.103799 -0.048147 0.173947 0.218509 -0.146269 0.066278 0.047475 -0.072242 0.018637 0.103156 -0.222078 0.154324 0.079809 0.134551 -0.189963 -0.119940 -0.071756 0.058445 -0.025507 -0.045930 0.201635 -0.146750 -0.040764 0.057763 -0.043834 -0.035419 -0.072532 0.026997 -0.002143 -0.148483 -0.078699 -0.040188 0.002136 -0.088253 0.170146 -0.017776 0.111664 -0.028932 -0.024095 -0.107604 -0.054932 -0.195090 -0.092240 -0.189368 -0.148142 0.032187 0.131945 -0.033541 0.044125 0.106105 0.160410 -0.035492 0.026305 -0.084582 -0.111451 0.050364 -0.026525 -0.244676 0.078272 0.118240 -0.121180 0.046416 -0.123203 -0.006166 -0.082714 -0.024252 0.178001 0.090392 -0.036608 -0.138820 0.015849 0.077542 0.028314 0.092193 -0.194703 -0.050089 -0.037065 0.218679 -0.184629 -0.104027 -0.015616 0.031597 0.141490 -0.173548 -0.201294 0.050425 0.078059 0.192992
12 -0.065394 -0.239259 0.085274 0.020803 0.014903 -0.197350 0.113612 0.109594 0.053397 0.015323 -0.088519 0.088096 0.112112 -0.204201 0.013604 -0.237833 -0.083942 -0.111335 0.012833 -0.048565 0.213687 -0.006540 0.191627 -0.012048 -0.016360 0.006605 0.032730 0.034731 0.076825 0.085059 -0.087040 0.087896 -0.128879 0.028818 -0.077156 -0.126576 0.204288 0.040206 -0.009429 -0.087604 -0.127558 -0.021806 0.142577 0.204703 -0.118444 0.080878 0.001758 -0.067954 -0.021653 0.070990 -0.161223 0.151612 0.085825 0.114433 -0.201106 -0.102848 -0.079682 0.052774 -0.060945 0.003040 0.180602 -0.151442 -0.061123 0.074072 -0.005700 -0.058642 -0.052696 0.012966 0.003072 -0.108398 -0.052906 -0.023212 0.023221 -0.083907 0.119908 -0.023700 0.091291 -0.012658 -0.008115 -0.054009 -0.051866 -0.211653 -0.086764 -0.203751 -0.119858 0.119644 0.045796 -0.019415 0.013453 0.079932 0.150539 -0.004731 0.029856 -0.097218 -0.087870 0.077279 -0.059526 -0.164800 0.067858 0.068136 -0.139215 0.046373 -0.114232 -0.019854 -0.038192 -0.019078 0.205228 0.095343 -0.034943 -0.105129 -0.001799 0.025633 0.017487 0.061965 -0.161641 -0.069408 -0.060747 0.202635 -0.163401 -0.081412 -0.035103 -0.010746 0.096019 -0.163767 -0.114546 0.079735 0.058832 0.166602
