11 128
3 -0.056350 -0.136032 0.045130 0.016926 0.048873 0.000517 0.139317 0.099365 0.025042 -0.087058 0.140584 0.033877 -0.118168 -0.193169 0.070438 -0.234983 0.106600 -0.171123 0.031660 -0.029643 -0.070795 0.029803 -0.073988 0.071001 0.141893 -0.069654 -0.022174 -0.035677 0.079888 0.088913 -0.099265 -0.092602 -0.131508 0.133788 -0.018746 -0.204432 0.150908 0.085999 0.047648 -0.038606 -0.056669 -0.158487 0.110604 0.203769 -0.169264 0.023559 0.043437 -0.241154 -0.034503 0.076785 -0.013324 0.017446 -0.055026 0.072814 -0.117566 -0.103838 -0.049894 0.043476 -0.064886 -0.003459 -0.014313 -0.086729 -0.023966 0.184875 -0.018828 -0.089252 0.095806 0.020390 -0.124042 -0.255543 0.008268 0.008693 0.000211 0.037661 0.133199 -0.118495 0.108801 -0.027274 -0.026503 -0.089497 -0.082472 -0.050491 -0.085189 0.025519 -0.021584 -0.055508 0.112461 0.017050 0.061176 -0.039661 0.122582 0.075408 0.060330 0.032814 -0.230401 0.097423 -0.189455 -0.184917 0.197105 0.055202 -0.124844 -0.077429 -0.074240 -0.083559 -0.055949 0.105745 0.102033 0.169103 -0.023130 -0.096004 0.018980 0.059076 0.116882 -0.028350 -0.150701 0.160481 0.083889 0.065242 -0.012428 0.017523 -0.127510 -0.115303 -0.019705 -0.224696 -0.241117 0.070048 0.179988 0.108771
8 -0.041269 -0.151938 0.037385 0.014335 0.030875 0.023286 0.153457 0.113490 0.034750 -0.081732 0.131922 0.047586 -0.121612 -0.204166 0.081619 -0.238466 0.109461 -0.152862 0.031036 -0.027165 -0.076857 0.025150 -0.055557 0.058571 0.132820 -0.061697 -0.025491 -0.048560 0.066234 0.095178 -0.089791 -0.085999 -0.132339 0.139594 -0.030399 -0.204779 0.167372 0.062387 0.043339 -0.047696 -0.083121 -0.153074 0.119997 0.220839 -0.172468 0.044207 0.042382 -0.251098 -0.016909 0.074133 -0.032587 0.016322 -0.044818 0.091264 -0.132589 -0.097646 -0.058874 0.036748 -0.083611 0.003399 -0.014791 -0.089851 -0.038372 0.186670 -0.013367 -0.095989 0.099045 0.008458 -0.149292 -0.273672 0.004156 0.002825 0.013000 0.045677 0.142197 -0.105142 0.097274 -0.023233 -0.036967 -0.092918 -0.083868 -0.064487 -0.098396 0.040028 -0.036635 -0.042272 0.105110 0.009316 0.062506 -0.050561 0.152685 0.079034 0.083281 0.036243 -0.238818 0.092071 -0.180702 -0.214882 0.181953 0.055653 -0.110326 -0.103554 -0.088517 -0.090208 -0.049679 0.084473 0.120304 0.186786 -0.035017 -0.096584 0.014696 0.069709 0.131790 -0.040274 -0.168577 0.157705 0.078242 0.066886 -0.041902 0.016271 -0.144899 -0.132159 -0.001655 -0.223508 -0.229231 0.062275 0.198614 0.102953
5 -0.051711 -0.135691 0.035723 0.015861 0.050667 -0.001021 0.137348 0.091158 0.033118 -0.086820 0.137639 0.037864 -0.115255 -0.182689 0.071235 -0.227889 0.098078 -0.167422 0.028994 -0.025141 -0.062910 0.031743 -0.075409 0.072476 0.137547 -0.070366 -0.022086 -0.040521 0.072648 0.081737 -0.097877 -0.088650 -0.127346 0.127615 -0.014711 -0.199313 0.144135 0.082764 0.042813 -0.039076 -0.051527 -0.151410 0.103921 0.194046 -0.164751 0.023478 0.041927 -0.231018 -0.029533 0.070239 -0.016505 0.023935 -0.047081 0.065185 -0.108257 -0.100868 -0.043657 0.038356 -0.056856 -0.009998 -0.012631 -0.087737 -0.019803 0.179982 -0.022657 -0.083549 0.094535 0.018650 -0.117558 -0.248047 0.004804 0.008540 -0.002569 0.030804 0.128647 -0.117287 0.099560 -0.029415 -0.031724 -0.090818 -0.083060 -0.048430 -0.082885 0.025434 -0.025069 -0.061333 0.110265 0.020584 0.061598 -0.036464 0.123360 0.068988 0.061779 0.033905 -0.222586 0.093925 -0.183174 -0.183558 0.192438 0.058137 -0.124687 -0.073568 -0.072916 -0.084520 -0.059730 0.098249 0.098810 0.162634 -0.027468 -0.092638 0.015118 0.056800 0.113043 -0.030923 -0.147793 0.157484 0.085936 0.062233 -0.009492 0.019019 -0.121705 -0.105475 -0.016895 -0.219448 -0.235131 0.068853 0.169489 0.109269
10 -0.036126 -0.146092 0.029909 0.013706 0.029822 0.030827 0.152434 0.111909 0.038387 -0.084262 0.130103 0.051177 -0.119375 -0.198506 0.076599 -0.225889 0.106138 -0.141342 0.022667 -0.027528 -0.073677 0.023391 -0.048085 0.062151 0.124659 -0.063488 -0.024763 -0.055560 0.062342 0.089852 -0.086238 -0.085891 -0.129017 0.137157 -0.034184 -0.197848 0.165620 0.052712 0.033955 -0.053981 -0.087417 -0.148961 0.124624 0.218902 -0.165681 0.048557 0.048487 -0.246208 -0.008159 0.065664 -0.032176 0.018307 -0.042810 0.088713 -0.130187 -0.091132 -0.053906 0.031205 -0.086382 0.010183 -0.011824 -0.083091 -0.044953 0.181777 -0.012741 -0.090800 0.092318 0.005682 -0.152468 -0.269865 0.009540 0.001260 0.020112 0.046437 0.145000 -0.098299 0.094134 -0.021824 -0.040118 -0.090094 -0.087080 -0.063026 -0.096357 0.042760 -0.037971 -0.040101 0.093950 0.004201 0.058002 -0.050401 0.155786 0.080878 0.089899 0.039322 -0.232164 0.094021 -0.172385 -0.213425 0.175724 0.059781 -0.108951 -0.104337 -0.086847 -0.086489 -0.051640 0.079024 0.120806 0.192108 -0.036582 -0.089939 0.022163 0.064720 0.130815 -0.043500 -0.161102 0.149310 0.075947 0.069587 -0.045320 0.013594 -0.142860 -0.130898 -0.000426 -0.216278 -0.217815 0.061424 0.192400 0.102672
1 -0.050138 -0.143687 0.039509 0.011476 0.042047 0.007527 0.141034 0.105795 0.036951 -0.084279 0.131604 0.041270 -0.112466 -0.194382 0.072085 -0.231075 0.105046 -0.159439 0.031583 -0.029855 -0.067899 0.026207 -0.062423 0.066859 0.133762 -0.065586 -0.021152 -0.041901 0.070935 0.083881 -0.095343 -0.083430 -0.128755 0.130750 -0.024254 -0.202291 0.149058 0.069675 0.044533 -0.049897 -0.071607 -0.154299 0.116556 0.207775 -0.168178 0.029796 0.040747 -0.238829 -0.017999 0.074020 -0.027212 0.024005 -0.050307 0.081702 -0.122409 -0.096363 -0.050262 0.041710 -0.072454 0.001070 -0.008826 -0.090037 -0.033309 0.180736 -0.020534 -0.086608 0.093664 0.016333 -0.137170 -0.256643 0.006339 0.003143 0.011623 0.039036 0.132622 -0.112463 0.102546 -0.026302 -0.031304 -0.093412 -0.084370 -0.058253 -0.087732 0.029443 -0.030509 -0.055849 0.103035 0.011960 0.063265 -0.040404 0.136358 0.075772 0.073172 0.034448 -0.228049 0.092695 -0.178804 -0.198879 0.189010 0.058319 -0.119615 -0.083853 -0.074833 -0.085009 -0.052898 0.096141 0.110028 0.178877 -0.030597 -0.090983 0.016643 0.059905 0.121178 -0.031276 -0.156535 0.151167 0.084046 0.066152 -0.029842 0.015514 -0.131997 -0.113959 -0.014614 -0.218589 -0.232311 0.065347 0.181380 0.106749
2 -0.041834 -0.140110 0.035753 0.012995 0.036490 0.014018 0.143298 0.106410 0.028105 -0.083063 0.130846 0.044153 -0.112233 -0.195229 0.073425 -0.230545 0.100898 -0.152121 0.027385 -0.028076 -0.070132 0.026654 -0.057367 0.062121 0.127380 -0.065311 -0.025242 -0.044726 0.071166 0.088776 -0.086471 -0.086676 -0.130778 0.133708 -0.026979 -0.194775 0.154956 0.066328 0.042750 -0.046442 -0.068879 -0.147101 0.115647 0.204953 -0.168329 0.033377 0.040286 -0.240033 -0.019822 0.068646 -0.023594 0.014731 -0.046688 0.083246 -0.124197 -0.096451 -0.049023 0.041665 -0.074750 0.004401 -0.014083 -0.082832 -0.032468 0.176173 -0.017036 -0.085328 0.091272 0.010955 -0.138826 -0.257702 0.005258 0.005344 0.012903 0.040028 0.133466 -0.104780 0.099988 -0.024720 -0.032143 -0.089336 -0.083657 -0.058216 -0.091956 0.033852 -0.026418 -0.045334 0.102463 0.010687 0.063268 -0.045499 0.138220 0.079001 0.073167 0.030206 -0.230538 0.093096 -0.178321 -0.197917 0.180152 0.058289 -0.110633 -0.091556 -0.075811 -0.087375 -0.053324 0.087064 0.112620 0.180533 -0.032009 -0.090885 0.014641 0.064318 0.122598 -0.036689 -0.157834 0.150718 0.080028 0.065729 -0.032202 0.015357 -0.133793 -0.120899 -0.008511 -0.220768 -0.225776 0.066955 0.187546 0.103558
7 -0.034138 -0.132882 0.028181 0.012052 0.027101 0.023399 0.138544 0.103315 0.034533 -0.078060 0.120216 0.044017 -0.108387 -0.189626 0.073544 -0.213332 0.098758 -0.138372 0.021139 -0.026547 -0.068676 0.021945 -0.049097 0.059278 0.122928 -0.061686 -0.027623 -0.048212 0.059832 0.083902 -0.077934 -0.076092 -0.124238 0.122066 -0.029580 -0.185175 0.148554 0.053716 0.034651 -0.046334 -0.077770 -0.138735 0.112688 0.201807 -0.156539 0.039927 0.042864 -0.228052 -0.012877 0.064806 -0.028688 0.017935 -0.043667 0.084243 -0.120828 -0.086384 -0.050061 0.031092 -0.071782 0.009296 -0.011328 -0.077616 -0.034901 0.170997 -0.013484 -0.083236 0.089054 0.012812 -0.134032 -0.249498 0.005581 0.007488 0.010477 0.042626 0.132043 -0.094843 0.089299 -0.017993 -0.033144 -0.085454 -0.076661 -0.052371 -0.089566 0.038498 -0.031626 -0.042545 0.089999 0.008556 0.052735 -0.041740 0.140145 0.073312 0.078811 0.032721 -0.217048 0.088830 -0.160698 -0.194536 0.163522 0.053879 -0.105061 -0.090642 -0.082029 -0.081339 -0.048595 0.075422 0.103524 0.172615 -0.027335 -0.085903 0.019614 0.065157 0.116982 -0.040127 -0.151453 0.140359 0.069981 0.060498 -0.038822 0.018922 -0.131860 -0.115459 -0.001188 -0.202041 -0.211562 0.057592 0.181883 0.099370
4 -0.050602 -0.135760 0.038481 0.017791 0.048682 0.002755 0.138330 0.104955 0.033451 -0.089524 0.142090 0.040575 -0.114362 -0.193805 0.072468 -0.233759 0.104850 -0.168815 0.031085 -0.025364 -0.066768 0.027777 -0.072992 0.068259 0.141066 -0.068657 -0.025935 -0.040221 0.077327 0.084699 -0.099082 -0.092588 -0.130884 0.131445 -0.022311 -0.204583 0.154437 0.081204 0.044876 -0.041565 -0.061127 -0.158501 0.116301 0.208694 -0.167089 0.025056 0.042795 -0.244264 -0.028822 0.070640 -0.016705 0.018390 -0.049257 0.076228 -0.119782 -0.099108 -0.046362 0.039811 -0.063617 -0.005881 -0.007254 -0.090374 -0.024735 0.184466 -0.016922 -0.083809 0.090673 0.019683 -0.129144 -0.259855 0.007270 0.008667 0.005957 0.033176 0.137252 -0.116767 0.107325 -0.024052 -0.033857 -0.088089 -0.083202 -0.057046 -0.087848 0.031038 -0.024124 -0.058135 0.113590 0.013440 0.064875 -0.038533 0.128528 0.073521 0.064068 0.033318 -0.231079 0.097896 -0.188114 -0.196114 0.193324 0.057321 -0.125647 -0.080496 -0.072168 -0.081598 -0.061308 0.100634 0.102231 0.175184 -0.029279 -0.095533 0.021846 0.059322 0.119221 -0.031085 -0.153962 0.161738 0.084457 0.066152 -0.019901 0.017757 -0.127170 -0.113195 -0.018603 -0.227975 -0.241802 0.069287 0.184946 0.111543
0 -0.047877 -0.139674 0.037579 0.010907 0.038615 0.010707 0.137468 0.099578 0.031087 -0.083166 0.135572 0.039925 -0.112409 -0.188744 0.075677 -0.227820 0.104381 -0.158650 0.027244 -0.028447 -0.069258 0.024035 -0.065284 0.066382 0.129173 -0.066499 -0.021440 -0.044911 0.067028 0.081090 -0.090234 -0.083309 -0.125793 0.127052 -0.018895 -0.198419 0.152097 0.074143 0.044797 -0.046985 -0.067985 -0.151727 0.109086 0.203266 -0.164435 0.033399 0.040968 -0.237084 -0.025353 0.072713 -0.023934 0.019135 -0.050208 0.072453 -0.118379 -0.097243 -0.051464 0.042019 -0.071186 -0.000195 -0.010294 -0.088827 -0.027927 0.180292 -0.018101 -0.088491 0.091249 0.011451 -0.131906 -0.251149 0.003146 0.008020 0.009107 0.039838 0.133307 -0.111755 0.099651 -0.025316 -0.032254 -0.089332 -0.080088 -0.055557 -0.082108 0.034140 -0.030263 -0.051443 0.104466 0.011785 0.062340 -0.040108 0.130528 0.077083 0.069320 0.031277 -0.224796 0.093996 -0.179732 -0.190891 0.188049 0.053863 -0.115040 -0.084873 -0.070958 -0.080290 -0.054810 0.094993 0.108671 0.175472 -0.024284 -0.088024 0.013853 0.061383 0.117357 -0.035142 -0.155079 0.149576 0.082047 0.060845 -0.025573 0.017428 -0.131681 -0.113002 -0.015051 -0.218192 -0.231615 0.067118 0.178952 0.106166
6 -0.046802 -0.141128 0.038374 0.017539 0.041966 0.010368 0.143333 0.105243 0.031828 -0.084304 0.136042 0.040296 -0.115887 -0.195018 0.075809 -0.230737 0.102186 -0.162601 0.030752 -0.030710 -0.070811 0.024852 -0.065664 0.062789 0.136659 -0.069034 -0.022058 -0.047283 0.071619 0.089664 -0.092102 -0.089445 -0.127260 0.130175 -0.020768 -0.200058 0.153278 0.076775 0.039377 -0.048981 -0.068679 -0.150367 0.116975 0.202828 -0.171532 0.031965 0.044592 -0.243236 -0.019854 0.074972 -0.023047 0.022077 -0.053092 0.077886 -0.116552 -0.100494 -0.050106 0.038271 -0.066987 -0.004490 -0.007742 -0.084616 -0.029231 0.181278 -0.017907 -0.090788 0.090608 0.015336 -0.135390 -0.259254 0.008113 0.006072 0.005338 0.042197 0.136583 -0.112147 0.103048 -0.021415 -0.033175 -0.089088 -0.086219 -0.052248 -0.085852 0.032384 -0.024137 -0.056750 0.108857 0.011919 0.060558 -0.041039 0.136527 0.076991 0.072477 0.036091 -0.228535 0.094928 -0.179317 -0.198822 0.190354 0.055104 -0.115229 -0.087056 -0.075760 -0.084265 -0.057511 0.097226 0.106595 0.179720 -0.026518 -0.093755 0.019741 0.063542 0.119383 -0.031703 -0.154367 0.157451 0.083722 0.062336 -0.024960 0.016561 -0.130469 -0.118020 -0.010290 -0.224447 -0.236245 0.068301 0.186252 0.102816
9 -0.035128 -0.134666 0.025277 0.011085 0.026122 0.026604 0.139066 0.106035 0.037787 -0.076589 0.120150 0.049698 -0.108734 -0.189477 0.071135 -0.212481 0.095939 -0.129149 0.020491 -0.023658 -0.073718 0.025733 -0.040759 0.050384 0.114493 -0.054461 -0.025896 -0.053585 0.056898 0.086834 -0.076609 -0.073507 -0.122601 0.122958 -0.025734 -0.185454 0.156334 0.050660 0.029963 -0.043602 -0.083573 -0.141416 0.114339 0.205168 -0.157880 0.040722 0.042139 -0.230107 -0.012975 0.058238 -0.033075 0.016284 -0.043286 0.084218 -0.116621 -0.086938 -0.053497 0.030647 -0.079354 0.005393 -0.011937 -0.078122 -0.042364 0.169874 -0.008849 -0.086875 0.089075 0.005944 -0.140413 -0.247999 0.008277 0.006676 0.020503 0.041041 0.135725 -0.093834 0.083654 -0.015035 -0.039069 -0.080366 -0.074299 -0.059170 -0.093744 0.034324 -0.035752 -0.037027 0.089630 0.005658 0.051701 -0.044332 0.144484 0.072358 0.085047 0.038449 -0.216149 0.080728 -0.157379 -0.195800 0.161402 0.055233 -0.103434 -0.100115 -0.084020 -0.079408 -0.045342 0.073128 0.107980 0.178692 -0.037074 -0.088283 0.021045 0.062915 0.124332 -0.041368 -0.151096 0.135941 0.065382 0.066206 -0.043585 0.017674 -0.134338 -0.123104 -0.002046 -0.199253 -0.206172 0.060681 0.180202 0.096133
